digraph Tree {
node [shape=box, style="filled, rounded", color="black", fontname="helvetica"] ;
edge [fontname="helvetica"] ;
0 [label="sepal length (cm) <= 5.45\ngini = 0.66\nsamples = 95\nvalue = [52, 44, 54]\nclass = virginica", fillcolor="#fcfbfe"] ;
1 [label="petal length (cm) <= 2.35\ngini = 0.18\nsamples = 33\nvalue = [48, 3, 2]\nclass = setosa", fillcolor="#e88e4d"] ;
0 -> 1 [labeldistance=2.5, labelangle=45, headlabel="True"] ;
2 [label="gini = 0.0\nsamples = 30\nvalue = [48, 0, 0]\nclass = setosa", fillcolor="#e58139"] ;
1 -> 2 ;
3 [label="petal width (cm) <= 1.6\ngini = 0.48\nsamples = 3\nvalue = [0, 3, 2]\nclass = versicolor", fillcolor="#bdf6d5"] ;
1 -> 3 ;
4 [label="gini = 0.0\nsamples = 2\nvalue = [0, 3, 0]\nclass = versicolor", fillcolor="#39e581"] ;
3 -> 4 ;
5 [label="gini = 0.0\nsamples = 1\nvalue = [0, 0, 2]\nclass = virginica", fillcolor="#8139e5"] ;
3 -> 5 ;
6 [label="petal length (cm) <= 5.05\ngini = 0.53\nsamples = 62\nvalue = [4, 41, 52]\nclass = virginica", fillcolor="#e6d8fa"] ;
0 -> 6 [labeldistance=2.5, labelangle=-45, headlabel="False"] ;
7 [label="petal length (cm) <= 2.6\ngini = 0.34\nsamples = 34\nvalue = [4, 39, 6]\nclass = versicolor", fillcolor="#67eb9e"] ;
6 -> 7 ;
8 [label="gini = 0.0\nsamples = 3\nvalue = [4, 0, 0]\nclass = setosa", fillcolor="#e58139"] ;
7 -> 8 ;
9 [label="petal length (cm) <= 4.75\ngini = 0.23\nsamples = 31\nvalue = [0, 39, 6]\nclass = versicolor", fillcolor="#57e994"] ;
7 -> 9 ;
10 [label="gini = 0.0\nsamples = 23\nvalue = [0, 33, 0]\nclass = versicolor", fillcolor="#39e581"] ;
9 -> 10 ;
11 [label="sepal length (cm) <= 5.95\ngini = 0.5\nsamples = 8\nvalue = [0, 6, 6]\nclass = versicolor", fillcolor="#ffffff"] ;
9 -> 11 ;
12 [label="gini = 0.0\nsamples = 1\nvalue = [0, 3, 0]\nclass = versicolor", fillcolor="#39e581"] ;
11 -> 12 ;
13 [label="sepal length (cm) <= 6.5\ngini = 0.44\nsamples = 7\nvalue = [0, 3, 6]\nclass = virginica", fillcolor="#c09cf2"] ;
11 -> 13 ;
14 [label="petal width (cm) <= 1.65\ngini = 0.24\nsamples = 6\nvalue = [0, 1, 6]\nclass = virginica", fillcolor="#965ae9"] ;
13 -> 14 ;
15 [label="sepal length (cm) <= 6.15\ngini = 0.5\nsamples = 2\nvalue = [0, 1, 1]\nclass = versicolor", fillcolor="#ffffff"] ;
14 -> 15 ;
16 [label="gini = 0.0\nsamples = 1\nvalue = [0, 0, 1]\nclass = virginica", fillcolor="#8139e5"] ;
15 -> 16 ;
17 [label="gini = 0.0\nsamples = 1\nvalue = [0, 1, 0]\nclass = versicolor", fillcolor="#39e581"] ;
15 -> 17 ;
18 [label="gini = 0.0\nsamples = 4\nvalue = [0, 0, 5]\nclass = virginica", fillcolor="#8139e5"] ;
14 -> 18 ;
19 [label="gini = 0.0\nsamples = 1\nvalue = [0, 2, 0]\nclass = versicolor", fillcolor="#39e581"] ;
13 -> 19 ;
20 [label="sepal length (cm) <= 6.05\ngini = 0.08\nsamples = 28\nvalue = [0, 2, 46]\nclass = virginica", fillcolor="#8642e6"] ;
6 -> 20 ;
21 [label="sepal length (cm) <= 5.95\ngini = 0.48\nsamples = 4\nvalue = [0, 2, 3]\nclass = virginica", fillcolor="#d5bdf6"] ;
20 -> 21 ;
22 [label="gini = 0.0\nsamples = 3\nvalue = [0, 0, 3]\nclass = virginica", fillcolor="#8139e5"] ;
21 -> 22 ;
23 [label="gini = 0.0\nsamples = 1\nvalue = [0, 2, 0]\nclass = versicolor", fillcolor="#39e581"] ;
21 -> 23 ;
24 [label="gini = 0.0\nsamples = 24\nvalue = [0, 0, 43]\nclass = virginica", fillcolor="#8139e5"] ;
20 -> 24 ;
}